{
  "inputSize": 6,
  "hiddenSize": 12,
  "outputSize": 1,
  "w1": [
    -1.555127392149889,
    -0.6824868371543906,
    -0.9132214210722409,
    0.7142970315077511,
    -0.8454294395989437,
    1.9799165238723475,
    1.1648533415433535,
    -0.07125415730278771,
    -2.4573503983445546,
    0.8865817822547086,
    -0.9851806617989755,
    -0.6623198916933667,
    -0.6292753050789079,
    1.3036766597236273,
    3.3868434408208454,
    1.2823844491378993,
    0.1755722372471814,
    -0.24697774659832233,
    -0.15089613998423615,
    2.120770661189899,
    1.431614493228204,
    0.7391069867109002,
    0.6505531301890153,
    -0.8614527897439742,
    -0.05179813482841083,
    -1.899162648962427,
    1.143057826940381,
    0.706049793570016,
    -0.04820344600826057,
    0.561074070540641,
    -0.4038335994784917,
    -0.602902411243908,
    0.5769117231271643,
    0.7772203587945351,
    0.38334968108953626,
    -0.978420191456003,
    2.526129724357311,
    1.1319365346465382,
    -0.27259713637846306,
    -2.0035058141881343,
    1.6942338077679389,
    0.08362175658890496,
    -0.21378357440857834,
    -1.8704156985796967,
    1.1233593105992132,
    0.21713613149380012,
    0.6584351974810396,
    0.6336290834662698,
    2.7614031133889565,
    -0.4867879842705094,
    1.8411567242340032,
    2.8805879174269013,
    -0.5673424158477697,
    1.3887185229532937,
    -0.8952761087167096,
    1.8202610561468744,
    1.1217225929607253,
    3.296353402761885,
    1.6163667607151575,
    1.3870142639222365,
    1.379151732503602,
    -0.4548681611390895,
    1.2308442435082576,
    -3.8696770472570545,
    0.7549325327495753,
    2.448308386203251,
    0.2655178090802598,
    0.5844150171364615,
    -2.7187531797882833,
    -1.3578432752312717,
    2.5652968541977734,
    1.2128956088134755
  ],
  "b1": [
    -1.8808260532689873,
    1.2045630328496715,
    0.7299965325504709,
    -0.7982759178067035,
    -1.3760048349751088,
    -2.0429089904379762,
    -0.3360290790481573,
    -0.33631162244058377,
    -0.5099304611398067,
    1.536651827761576,
    -0.8895263963315665,
    -0.41948351244346577
  ],
  "w2": [
    0.03981332641610644,
    1.126124090654831,
    1.1236582481839739,
    0.4968280056135361,
    -1.8851447168718878,
    -2.7369243304119344,
    -0.1218145105020144,
    -0.32250341109752656,
    0.04964924231935172,
    -0.8202992348160847,
    -0.5474614263690731,
    0.5342474762602175
  ],
  "b2": [
    -0.7583330551964643
  ],
  "meta": {
    "trainedAt": "2026-07-24T00:13:44.391Z",
    "generations": 800,
    "populationSize": 60,
    "bestFitness": 369.58928403439813,
    "opponents": [
      "human",
      "hard",
      "elite"
    ]
  }
}